GIS
6
-1.3580894066553117
2
T
F
2
10 0
7 0 1
17
sn
4
5
6
7
8
9
v=??
v=??
10
eos=.
s=
n=
3
2
eos=?
v=??
1.1214223698963828
1.0365282026898188
1.05985036161535
1.0511835910971956
1.0397326768345114
1.041462322349962
1.0414623223499617
0.9746793331783421
0.9519022578272704
1.0704887299407964
0.35856898314183105
16.81001098231746
0.8102653204997896
-17.410786940034843
0.8326695744053305
-29.341347760560087
0.5141392361867099
1.8289559194102147
-2.3634768206169707
10.152213114335861
-0.9968161403205649
12.912247907044904
0.40688484783385803
1.6364764409850583
